digraph Tree {
node [shape=box, fontname="helvetica"] ;
edge [fontname="helvetica"] ;
0 [label="rm <= 6.941\nsquared_error = 84.158\nsamples = 404\nvalue = 22.617"] ;
1 [label="lstat <= 14.35\nsquared_error = 38.744\nsamples = 342\nvalue = 20.01"] ;
0 -> 1 [labeldistance=2.5, labelangle=45, headlabel="True"] ;
2 [label="squared_error = 26.097\nsamples = 201\nvalue = 23.321"] ;
1 -> 2 ;
3 [label="squared_error = 18.865\nsamples = 141\nvalue = 15.29"] ;
1 -> 3 ;
4 [label="rm <= 7.437\nsquared_error = 90.357\nsamples = 62\nvalue = 36.998"] ;
0 -> 4 [labeldistance=2.5, labelangle=-45, headlabel="False"] ;
5 [label="squared_error = 46.863\nsamples = 39\nvalue = 31.803"] ;
4 -> 5 ;
6 [label="squared_error = 40.71\nsamples = 23\nvalue = 45.809"] ;
4 -> 6 ;
}